SVM-light Version V6.20
0 # kernel type
3 # kernel parameter -d 
1 # kernel parameter -g 
1 # kernel parameter -s 
1 # kernel parameter -r 
empty# kernel parameter -u 
43 # highest feature index 
72 # number of training documents 
2 # number of support vectors plus 1 
0 # threshold b, each following line is a SV (starting with alpha*y)
1 1:0.42854866 2:0.013159652 3:-0.0084447311 4:-0.2811673 5:0.017338127 6:-0.13675903 7:-0.27731645 8:-0.26371801 10:-0.25473928 11:-0.011158695 12:-0.040966898 13:-0.21089876 14:0.27605155 15:0.10807952 16:-0.11032151 17:-0.060008306 18:-0.072125331 19:-0.043445136 20:-0.051491637 21:0.15370272 22:-0.093939781 23:-0.31786454 24:0.0254339 25:0.023960901 26:-0.13371237 27:-0.37021467 28:-0.1016429 29:0.57005602 30:0.0558163 32:0.0096815079 33:0.036405019 34:-0.088094033 35:0.0103663 36:-1.8336281 37:-3.8280661 38:-0.59618032 39:3.2030873 40:-0.95337671 41:0.48216608 42:-0.0027127548 #
