SVM-light Version V6.20
0 # kernel type
3 # kernel parameter -d 
1 # kernel parameter -g 
1 # kernel parameter -s 
1 # kernel parameter -r 
empty# kernel parameter -u 
43 # highest feature index 
83 # number of training documents 
2 # number of support vectors plus 1 
0 # threshold b, each following line is a SV (starting with alpha*y)
1 1:0.41594416 2:0.014910951 3:-0.012195661 4:-0.24051401 5:-0.016064605 6:-0.14979443 7:-0.26847202 8:-0.25111431 10:-0.17368537 11:-0.040687278 12:-0.042712811 13:-0.26195088 14:0.22918396 15:0.099505797 16:-0.12802373 17:-0.029347982 18:0.071535602 19:-0.079878978 20:-0.039152626 21:0.21633519 22:-0.036808703 23:-0.32891899 24:-0.0093333591 25:0.045125838 26:-0.15509263 27:-0.38000348 28:-0.10218567 29:0.63575375 30:0.0587373 32:-0.010460064 33:0.040942263 34:-0.11055025 35:0.017603086 36:-1.8149951 37:-3.7180612 38:-0.57497859 39:3.1256227 40:-0.98714888 41:0.47452444 42:-0.0023994427 #
